<?xml version="1.0"?>
<opencv_storage>
<myhaar type_id="opencv-haar-classifier">
  <size>
    24 24</size>
  <stages>
    <_>
      <trees>
        <_>
          <_>
            <feature>
              <rects>
                <_>
                  10 20 4 4 -1.</_>
                <_>
                  10 22 4 2 2.</_></rects>
              <tilted>0</tilted></feature>
            <threshold>-0.0145126897841692</threshold>
            <left_val>0.8867926001548767</left_val>
            <right_val>-1.0000020265579224</right_val></_></_></trees>
      <stage_threshold>0.8867926001548767</stage_threshold>
      <parent>-1</parent>
      <next>-1</next></_>
    <_>
      <trees>
        <_>
          <_>
            <feature>
              <rects>
                <_>
                  0 0 16 16 -1.</_>
                <_>
                  0 4 16 8 2.</_></rects>
              <tilted>0</tilted></feature>
            <threshold>0.0539943389594555</threshold>
            <left_val>-0.8924732208251953</left_val>
            <right_val>0.7757009863853455</right_val></_></_>
        <_>
          <_>
            <feature>
              <rects>
                <_>
                  18 6 6 3 -1.</_>
                <_>
                  18 6 3 3 2.</_></rects>
              <tilted>0</tilted></feature>
            <threshold>6.1049368232488632e-003</threshold>
            <left_val>-0.6853039860725403</left_val>
            <right_val>0.5698943138122559</right_val></_></_></trees>
      <stage_threshold>-0.3225787878036499</stage_threshold>
      <parent>0</parent>
      <next>-1</next></_>
    <_>
      <trees>
        <_>
          <_>
            <feature>
              <rects>
                <_>
                  0 2 6 14 -1.</_>
                <_>
                  3 2 3 14 2.</_></rects>
              <tilted>0</tilted></feature>
            <threshold>0.0281667690724134</threshold>
            <left_val>-1.</left_val>
            <right_val>0.7543858289718628</right_val></_></_></trees>
      <stage_threshold>0.7543858289718628</stage_threshold>
      <parent>1</parent>
      <next>-1</next></_>
    <_>
      <trees>
        <_>
          <_>
            <feature>
              <rects>
                <_>
                  0 6 24 18 -1.</_>
                <_>
                  8 12 8 6 9.</_></rects>
              <tilted>0</tilted></feature>
            <threshold>0.5447524189949036</threshold>
            <left_val>-0.7969542145729065</left_val>
            <right_val>0.7733988761901856</right_val></_></_>
        <_>
          <_>
            <feature>
              <rects>
                <_>
                  8 0 8 6 -1.</_>
                <_>
                  8 2 8 2 3.</_></rects>
              <tilted>0</tilted></feature>
            <threshold>0.0332712493836880</threshold>
            <left_val>-0.6956505179405212</left_val>
            <right_val>0.9172040820121765</right_val></_></_></trees>
      <stage_threshold>0.0777484774589539</stage_threshold>
      <parent>2</parent>
      <next>-1</next></_>
    <_>
      <trees>
        <_>
          <_>
            <feature>
              <rects>
                <_>
                  7 4 10 20 -1.</_>
                <_>
                  7 14 10 10 2.</_></rects>
              <tilted>0</tilted></feature>
            <threshold>-0.0749333798885345</threshold>
            <left_val>0.4285719096660614</left_val>
            <right_val>-1.0000020265579224</right_val></_></_></trees>
      <stage_threshold>0.4285719096660614</stage_threshold>
      <parent>3</parent>
      <next>-1</next></_>
    <_>
      <trees>
        <_>
          <_>
            <feature>
              <rects>
                <_>
                  10 0 13 3 -1.</_>
                <_>
                  9 1 13 1 3.</_></rects>
              <tilted>1</tilted></feature>
            <threshold>4.1389199905097485e-003</threshold>
            <left_val>-0.8657717704772949</left_val>
            <right_val>0.5139440894126892</right_val></_></_>
        <_>
          <_>
            <feature>
              <rects>
                <_>
                  14 21 2 3 -1.</_>
                <_>
                  14 22 2 1 3.</_></rects>
              <tilted>0</tilted></feature>
            <threshold>7.6379301026463509e-003</threshold>
            <left_val>-0.5487006902694702</left_val>
            <right_val>0.5781071186065674</right_val></_></_></trees>
      <stage_threshold>-0.2876647114753723</stage_threshold>
      <parent>4</parent>
      <next>-1</next></_>
    <_>
      <trees>
        <_>
          <_>
            <feature>
              <rects>
                <_>
                  12 0 3 5 -1.</_>
                <_>
                  13 1 1 5 3.</_></rects>
              <tilted>1</tilted></feature>
            <threshold>2.6352410204708576e-003</threshold>
            <left_val>-0.8571428060531616</left_val>
            <right_val>0.4615384042263031</right_val></_></_>
        <_>
          <_>
            <feature>
              <rects>
                <_>
                  22 5 2 9 -1.</_>
                <_>
                  22 5 1 9 2.</_></rects>
              <tilted>0</tilted></feature>
            <threshold>8.9085027575492859e-003</threshold>
            <left_val>-0.5991454720497131</left_val>
            <right_val>0.7256163954734802</right_val></_></_>
        <_>
          <_>
            <feature>
              <rects>
                <_>
                  2 21 12 3 -1.</_>
                <_>
                  6 22 4 1 9.</_></rects>
              <tilted>0</tilted></feature>
            <threshold>0.0346309803426266</threshold>
            <left_val>-0.8517652153968811</left_val>
            <right_val>0.5920147895812988</right_val></_></_></trees>
      <stage_threshold>0.3353896141052246</stage_threshold>
      <parent>5</parent>
      <next>-1</next></_>
    <_>
      <trees>
        <_>
          <_>
            <feature>
              <rects>
                <_>
                  6 0 15 3 -1.</_>
                <_>
                  5 1 15 1 3.</_></rects>
              <tilted>1</tilted></feature>
            <threshold>5.6032219436019659e-004</threshold>
            <left_val>-1.</left_val>
            <right_val>0.5325672030448914</right_val></_></_>
        <_>
          <_>
            <feature>
              <rects>
                <_>
                  0 7 24 13 -1.</_>
                <_>
                  8 7 8 13 3.</_></rects>
              <tilted>0</tilted></feature>
            <threshold>0.1293933987617493</threshold>
            <left_val>-0.9441167116165161</left_val>
            <right_val>0.3958767950534821</right_val></_></_>
        <_>
          <_>
            <feature>
              <rects>
                <_>
                  0 0 19 20 -1.</_>
                <_>
                  0 5 19 10 2.</_></rects>
              <tilted>0</tilted></feature>
            <threshold>0.1226933002471924</threshold>
            <left_val>-0.9681345820426941</left_val>
            <right_val>0.3992280066013336</right_val></_></_>
        <_>
          <_>
            <feature>
              <rects>
                <_>
                  20 2 3 4 -1.</_>
                <_>
                  20 3 3 2 2.</_></rects>
              <tilted>0</tilted></feature>
            <threshold>-3.8104029954411089e-005</threshold>
            <left_val>0.2290913015604019</left_val>
            <right_val>-0.8057824969291687</right_val></_></_>
        <_>
          <_>
            <feature>
              <rects>
                <_>
                  2 12 2 2 -1.</_>
                <_>
                  2 12 1 2 2.</_></rects>
              <tilted>1</tilted></feature>
            <threshold>-1.0102699889102951e-004</threshold>
            <left_val>0.6433587074279785</left_val>
            <right_val>-1.0000029802322388</right_val></_></_></trees>
      <stage_threshold>-0.1747452020645142</stage_threshold>
      <parent>6</parent>
      <next>-1</next></_></stages></myhaar>
</opencv_storage>
